digraph Tree {
node [shape=box, style="filled, rounded", color="black", fontname=helvetica] ;
edge [fontname=helvetica] ;
0 [label="NumOfEventsInJourney <= 0.13\ngini = 0.5\nsamples = 11333\nvalue = [8999, 8955]", fillcolor="#fffefe"] ;
1 [label="NumView <= 0.06\ngini = 0.5\nsamples = 10351\nvalue = [8704, 7708]", fillcolor="#fcf1e8"] ;
0 -> 1 [labeldistance=2.5, labelangle=45, headlabel="True"] ;
2 [label="maxPrice <= 0.0\ngini = 0.09\nsamples = 5080\nvalue = [359, 7708]", fillcolor="#42a2e6"] ;
1 -> 2 ;
3 [label="gini = 0.0\nsamples = 1\nvalue = [1, 0]", fillcolor="#e58139"] ;
2 -> 3 ;
4 [label="InsessionView <= 0.01\ngini = 0.08\nsamples = 5079\nvalue = [358, 7708]", fillcolor="#42a2e6"] ;
2 -> 4 ;
5 [label="NumCart <= 0.06\ngini = 0.08\nsamples = 4767\nvalue = [327, 7252]", fillcolor="#42a1e6"] ;
4 -> 5 ;
6 [label="gini = 0.0\nsamples = 4558\nvalue = [0, 7252]", fillcolor="#399de5"] ;
5 -> 6 ;
7 [label="gini = 0.0\nsamples = 209\nvalue = [327, 0]", fillcolor="#e58139"] ;
5 -> 7 ;
8 [label="InsessionView <= 0.02\ngini = 0.12\nsamples = 312\nvalue = [31, 456]", fillcolor="#46a4e7"] ;
4 -> 8 ;
9 [label="gini = 0.13\nsamples = 274\nvalue = [31, 398]", fillcolor="#48a5e7"] ;
8 -> 9 ;
10 [label="gini = 0.0\nsamples = 38\nvalue = [0, 58]", fillcolor="#399de5"] ;
8 -> 10 ;
11 [label="gini = 0.0\nsamples = 5271\nvalue = [8345, 0]", fillcolor="#e58139"] ;
1 -> 11 ;
12 [label="NumView <= 0.17\ngini = 0.31\nsamples = 982\nvalue = [295, 1247]", fillcolor="#68b4eb"] ;
0 -> 12 [labeldistance=2.5, labelangle=-45, headlabel="False"] ;
13 [label="InsessionView <= 0.01\ngini = 0.07\nsamples = 765\nvalue = [40, 1148]", fillcolor="#40a0e6"] ;
12 -> 13 ;
14 [label="maxPrice <= 0.01\ngini = 0.04\nsamples = 232\nvalue = [8, 354]", fillcolor="#3d9fe6"] ;
13 -> 14 ;
15 [label="NumCart <= 0.17\ngini = 0.22\nsamples = 12\nvalue = [2, 14]", fillcolor="#55abe9"] ;
14 -> 15 ;
16 [label="gini = 0.0\nsamples = 11\nvalue = [0, 14]", fillcolor="#399de5"] ;
15 -> 16 ;
17 [label="gini = 0.0\nsamples = 1\nvalue = [2, 0]", fillcolor="#e58139"] ;
15 -> 17 ;
18 [label="NumOfEventsInJourney <= 0.21\ngini = 0.03\nsamples = 220\nvalue = [6, 340]", fillcolor="#3c9fe5"] ;
14 -> 18 ;
19 [label="gini = 0.04\nsamples = 205\nvalue = [6, 307]", fillcolor="#3d9fe6"] ;
18 -> 19 ;
20 [label="gini = 0.0\nsamples = 15\nvalue = [0, 33]", fillcolor="#399de5"] ;
18 -> 20 ;
21 [label="NumCart <= 0.06\ngini = 0.07\nsamples = 533\nvalue = [32, 794]", fillcolor="#41a1e6"] ;
13 -> 21 ;
22 [label="gini = 0.0\nsamples = 458\nvalue = [0, 713]", fillcolor="#399de5"] ;
21 -> 22 ;
23 [label="interactionTime <= 0.04\ngini = 0.41\nsamples = 75\nvalue = [32, 81]", fillcolor="#87c4ef"] ;
21 -> 23 ;
24 [label="gini = 0.5\nsamples = 38\nvalue = [27, 32]", fillcolor="#e0f0fb"] ;
23 -> 24 ;
25 [label="gini = 0.17\nsamples = 37\nvalue = [5, 49]", fillcolor="#4da7e8"] ;
23 -> 25 ;
26 [label="NumOfEventsInJourney <= 0.21\ngini = 0.4\nsamples = 217\nvalue = [255, 99]", fillcolor="#efb286"] ;
12 -> 26 ;
27 [label="gini = 0.0\nsamples = 139\nvalue = [226, 0]", fillcolor="#e58139"] ;
26 -> 27 ;
28 [label="NumOfEventsInJourney <= 0.29\ngini = 0.35\nsamples = 78\nvalue = [29, 99]", fillcolor="#73baed"] ;
26 -> 28 ;
29 [label="NumView <= 0.28\ngini = 0.41\nsamples = 48\nvalue = [22, 55]", fillcolor="#88c4ef"] ;
28 -> 29 ;
30 [label="gini = 0.18\nsamples = 39\nvalue = [6, 55]", fillcolor="#4fa8e8"] ;
29 -> 30 ;
31 [label="gini = 0.0\nsamples = 9\nvalue = [16, 0]", fillcolor="#e58139"] ;
29 -> 31 ;
32 [label="interactionTime <= 0.92\ngini = 0.24\nsamples = 30\nvalue = [7, 44]", fillcolor="#58ade9"] ;
28 -> 32 ;
33 [label="gini = 0.15\nsamples = 29\nvalue = [4, 44]", fillcolor="#4ba6e7"] ;
32 -> 33 ;
34 [label="gini = 0.0\nsamples = 1\nvalue = [3, 0]", fillcolor="#e58139"] ;
32 -> 34 ;
}